-6.336550326248729 1.404912335527879 -0.9808362654180517 -0.31888652239 0.04162283978929043 -2.061982396148181 -2.829030239700915 2.4241342140255 -2.482819010911675 -0.48811331006277003 
-6.336550326248729 0.787179172092 -0.9341297765886206 -0.31888652239 0.03964079979932422 -1.2604876353591457 -1.8504405458311746 2.5453409247267746 -2.482819010911675 -0.44162632815202996 
-6.336550326248729 2.8171421649295776 -0.9341297765886206 -0.31808930608402497 0.03964079979932422 -1.2604876353591457 -2.2383591694885 2.6793062365545 -2.75104599547 -0.4648698191074 
-4.938605098764159 0.8265381306966 -0.9832945016722323 -0.31888652239 -0.15106815452099703 -1.323512017127103 -2.2383591694885 2.9539351258013364 -2.557924480694628 -0.18675186884224915 
-4.938605098764159 1.475157952304273 -0.9832945016722323 -0.3348308485095 0.03964079979932422 -1.2573364162707479 -2.35616754683 2.5453409247267746 -2.557924480694628 -0.44162632815202996 
-5.185535353702368 0.7869282684979992 -0.7212259300683674 -0.31808930608402497 -0.1370232694068 -1.323512017127103 -2.35616754683 2.5453409247267746 0.5689631891286 0.19957567505732476 
-4.938605098764159 1.404912335527879 -0.9341297765886206 -0.31888652239 0.03964079979932422 -1.323512017127103 -2.970481751685961 2.4241342140255 0.541869703932 -0.5394936584904301 
-5.721848382892258 0.2142070554089689 -0.9832945016722323 -0.31888652239 0.03765875980935801 -1.323512017127103 -1.7579185185396158 2.5562108984993817 -2.75104599547 -0.6776253071873576 
-5.185535353702368 3.4739832190926476 -0.7212259300683674 -0.31888652239 0.03964079979932422 -1.323512017127103 -2.537034863373855 2.5453409247267746 0.6176182026873002 -0.4868930267876131 
-4.938605098764159 1.404912335527879 -1.0044402304958295 -0.3348308485095 -0.13017210593646 -1.3891286057794046 -2.970481751685961 2.4241342140255 0.541869703932 -1.025349288139612 
-6.336550326248729 1.404912335527879 -0.9341297765886206 -0.31888652239 0.04162283978929043 -1.9588832763407718 -1.8504405458311746 2.4241342140255 -2.4013841950805714 -0.44162632815202996 
-13.45255378225677 3.204197578660102 -0.9808362654180517 -0.3339937713882262 0.04370398177875496 -1.2604876353591457 -4.013060153407173 2.4241342140255 -2.482819010911675 -0.48811331006277003 
-6.336550326248729 0.8265381306966 -0.9808362654180517 -0.31888652239 -0.15106815452099703 -2.061982396148181 -2.829030239700915 2.9539351258013364 -2.6069599614572585 -0.18675186884224915 
-6.336550326248729 1.475157952304273 -1.4986181188052723 -1.3419294551917216 0.03964079979932422 -1.9588832763407718 -2.829030239700915 2.545340924726775 -2.557924480694628 -0.46370764455963154 
-5.51557536272348 1.404912335527879 -1.8277263795496856 -0.31888652239 0.04162283978929043 -1.3182472283134015 -2.211433158466758 2.302927503324225 0.5689631891286 -0.48811331006277003 
-6.336550326248729 1.475157952304273 -0.8623244180724987 -0.31888652239 0.04162283978929043 -1.2573364162707479 -2.829030239700915 2.302927503324225 -2.482819010911675 -1.2160496004495953 
-5.721848382892258 0.20349670263852043 -0.9515689886017049 -0.31888652239 0.039541697799825914 -1.2573364162707479 -1.6700225926126349 2.5562108984993817 -2.482819010911675 -0.48811331006277003 
-6.336550326248729 1.475157952304273 -0.7212259300683674 -0.31888652239 0.7139419253155062 -1.323512017127103 -2.537034863373855 2.4241342140255 -2.6069599614572585 -0.4868930267876131 
-5.185535353702368 1.404912335527879 -0.9808362654180517 -0.3348308485095 -0.12366350063963699 -1.4585850360683748 -2.687578727715869 2.4241342140255 -2.358678060366091 -1.2856511862924 
-6.336550326248729 0.8265381306966 -0.8874232877591895 -0.31808930608402497 0.03964079979932422 -1.323512017127103 -1.8504405458311746 2.5453409247267746 -2.482819010911675 -0.4648698191074 
-4.938605098764159 0.9711542557904367 -0.8874232877591895 -0.31888652239 0.03964079979932422 -1.323512017127103 -1.8504405458311746 2.9539351258013364 -4.052026039754306 -0.44162632815202996 
-4.691674843825951 0.787179172092 -0.9832945016722323 -0.3348308485095 0.03964079979932422 -1.323512017127103 -2.35616754683 2.5453409247267746 -2.557924480694628 -0.44162632815202996 
-5.185535353702368 0.7869282684979992 -0.685164633564949 -0.3021848407798237 -0.14387443287714002 -1.2604876353591457 -2.4739759241715 4.917861299549891 -2.482819010911675 0.19957567505732476 
-4.938605098764159 1.404912335527879 -0.08727078064407212 -0.9535711891989591 0.03964079979932422 -1.2604876353591457 -1.8504405458311746 2.545340924726775 -2.482819010911675 -0.44162632815202996 
-5.467515601249349 0.8265381306966 -1.032459226755844 -0.31888652239 0.03765875980935801 -1.323512017127103 -1.7579185185396158 1.8137237489502964 -2.75104599547 -0.7115065725467254 
-6.019722809936293 0.8265381306966 -0.7212259300683674 -0.30294219627049995 0.7328380039146921 -1.2604876353591457 -1.8504405458311746 2.6726079709631136 -2.6069599614572585 -0.4868930267876131 
-4.938605098764159 0.7478202134873999 -0.9341297765886206 -0.31888652239 0.03964079979932422 -1.323512017127103 -2.970481751685961 2.5453409247267746 0.541869703932 -0.44162632815202996 
-5.143209197067397 2.8171421649295776 -0.9832945016722323 -0.31808930608402497 -0.15106815452099703 -1.323512017127103 -2.2383591694885 2.6793062365545 -2.75104599547 -0.17741427540013668 
-6.336550326248729 2.8171421649295776 -0.9341297765886206 -0.3348308485095 0.03964079979932422 -0.3791928223918254 -2.3502771279629253 2.5453409247267746 -2.8885982952435003 -0.44162632815202996 
-5.185535353702368 2.8171421649295776 -0.9341297765886206 -0.3339937713882262 0.03964079979932422 -1.2604876353591457 -2.3502771279629253 2.4180738784904356 -2.75104599547 -0.48811331006277003 
-4.938605098764159 1.334666718751485 -0.9341297765886206 -0.31888652239 0.03964079979932422 -1.3896876179834583 -2.970481751685961 2.4241342140255 0.5147762187353999 -0.5125189755659085 
-6.007940802036871 0.2142070554089689 -0.9341297765886206 -0.31808930608402497 0.03964079979932422 -1.323512017127103 -2.2383591694885 2.800042129282664 -2.75104599547 -0.6776253071873576 
-12.613401096861699 6.960793177114427 -0.9341297765886206 -0.31888652239 0.04162283978929043 -1.2604876353591457 -2.055760355379945 2.4180738784904356 0.6176182026873002 -0.4868930267876131 
-4.938605098764159 1.7732796718939072 -0.9341297765886206 -0.3348308485095 0.03964079979932422 -1.2604876353591457 -2.3502771279629253 2.5453409247267746 -2.75104599547 -1.025349288139612 
-4.938605098764159 1.4014000546890593 -0.9832945016722323 -0.24666839547649871 0.03964079979932422 -1.323512017127103 -2.2383591694885 2.4227647093528986 -2.557924480694628 -0.18675186884224915 
-5.185535353702368 0.7869282684979992 0.23723194197920894 -0.5120597491527303 -0.1370232694068 -1.323512017127103 -2.4739759241715 2.5453409247267746 0.5689631891286 0.19957567505732476 
-4.938605098764159 1.334666718751485 -1.032459226755844 -0.31888652239 -0.3729400576920369 -1.323512017127103 -2.3502771279629253 2.2704174677117566 0.541869703932 -0.5394936584904301 
-5.721848382892258 0.8265381306966 -0.9832945016722323 -0.31888652239 0.03765875980935801 -1.323512017127103 -2.2383591694885 2.9539351258013364 -2.4300282566598965 -0.18675186884224915 
-4.938605098764159 0.8265381306966 -0.9832945016722323 -0.30294219627049995 0.04162283978929043 -1.2573364162707479 -2.2383591694885 3.697323188420226 0.6176182026873002 -0.4868930267876131 
-5.185535353702368 1.404912335527879 -0.9832945016722323 -0.3348308485095 -0.15106815452099703 -1.3891286057794046 -2.5670436801744865 2.4241342140255 -5.82734109848173 -0.17741427540013668 
-4.938605098764159 0.7869282684979992 -1.654015742859479 -0.31808930608402497 -0.1370232694068 -1.323512017127103 -2.35616754683 2.5453409247267746 1.2649621865260636 -0.44162632815202996 
-10.495400416632686 0.9851834809097325 -0.31305264780008113 -0.3348308485095 0.03964079979932422 -1.323512017127103 -2.970481751685961 2.4241342140255 0.541869703932 -0.5394936584904301 
-5.721848382892258 0.2142070554089689 -1.7036718270270819 -0.3348308485095 0.03765875980935801 -1.3202032370842853 -1.7579185185396158 2.684021443424351 -2.75104599547 -0.44162632815202996 
-5.185535353702368 3.4739832190926476 -0.7212259300683674 -0.3348308485095 0.03964079979932422 -1.323512017127103 -2.537034863373855 2.5453409247267746 -2.6858207047293594 -0.3350528039799827 
-4.938605098764159 0.8449131679000708 -2.558897628270545 -0.338792956979498 -0.13017210593646 -1.4585850360683748 -2.2227308334044515 2.4241342140255 0.5689631891286 -1.025349288139612 
-5.185535353702368 1.404912335527879 -0.8874232877591895 -0.31808930608402497 0.03964079979932422 -1.323512017127103 -2.821957664101663 2.5453409247267746 -0.10215499594997501 0.20955445881019102 
-5.971246602372069 0.2142070554089689 -0.9832945016722323 -0.31888652239 0.03577582181889011 -1.323512017127103 -1.7579185185396158 2.5453409247267746 0.5689631891286 0.1895968913044585 
-4.909964515369339 0.7194558445059799 -0.7212259300683674 -0.31808930608402497 -0.1370232694068 -1.323512017127103 -2.537034863373855 2.5453409247267746 0.5689631891286 0.20955445881019102 
-5.185535353702368 1.404912335527879 -0.7572872265717858 -0.6683105771527179 0.2869363710001742 -1.3891286057794046 -2.35616754683 2.5453409247267746 0.9822394981868859 0.19957567505732476 
-4.938605098764159 0.2142070554089689 -0.9832945016722323 -0.31888652239 0.03765875980935801 -1.323512017127103 -3.814665615910192 2.302927503324225 -2.6134936956965 -0.5394936584904301 
-4.938605098764159 3.4739832190926476 -0.7212259300683674 -0.31888652239 0.03964079979932422 -1.3896876179834583 -2.537034863373855 2.4241342140255 0.541869703932 -0.4868930267876131 
-4.938605098764159 1.3980070626128884 -2.6292010838053406 -0.3348308485095 0.04162283978929043 -1.323512017127103 -3.119005839270259 2.4241342140255 0.541869703932 -1.025349288139612 
-5.185535353702368 0.2142070554089689 -0.9341297765886206 -0.31888652239 0.03765875980935801 -1.323512017127103 -2.537034863373855 2.5453409247267746 0.6176182026873002 -0.4868930267876131 
-5.721848382892258 1.6263060508077876 -0.9832945016722323 -0.30294219627049995 0.12710328187232217 -1.3891286057794046 -1.7579185185396158 2.545340924726775 0.541869703932 -0.6776253071873576 
-4.926258586017249 1.404912335527879 -0.7212259300683674 -0.31888652239 -0.13017210593646 -1.323512017127103 -2.663886606542548 2.545340924726775 0.541869703932 -1.025349288139612 
